FANN_FLO_2.1
num_layers=3
learning_rate=0.700000
connection_rate=1.000000
network_type=0
learning_momentum=0.000000
training_algorithm=2
train_error_function=1
train_stop_function=0
cascade_output_change_fraction=0.010000
quickprop_decay=-0.000100
quickprop_mu=1.750000
rprop_increase_factor=1.200000
rprop_decrease_factor=0.500000
rprop_delta_min=0.000000
rprop_delta_max=50.000000
rprop_delta_zero=0.100000
cascade_output_stagnation_epochs=12
cascade_candidate_change_fraction=0.010000
cascade_candidate_stagnation_epochs=12
cascade_max_out_epochs=150
cascade_min_out_epochs=50
cascade_max_cand_epochs=150
cascade_min_cand_epochs=50
cascade_num_candidate_groups=2
bit_fail_limit=3.49999994039535522461e-01
cascade_candidate_limit=1.00000000000000000000e+03
cascade_weight_multiplier=4.00000005960464477539e-01
cascade_activation_functions_count=10
cascade_activation_functions=3 5 7 8 10 11 14 15 16 17 
cascade_activation_steepnesses_count=4
cascade_activation_steepnesses=2.50000000000000000000e-01 5.00000000000000000000e-01 7.50000000000000000000e-01 1.00000000000000000000e+00 
layer_sizes=2 8 3 
scale_included=0
neurons (num_inputs, activation_function, activation_steepness)=(0, 0, 0.00000000000000000000e+00) (0, 0, 0.00000000000000000000e+00) (2, 5, 5.00000000000000000000e-01) (2, 5, 5.00000000000000000000e-01) (2, 5, 5.00000000000000000000e-01) (2, 5, 5.00000000000000000000e-01) (2, 5, 5.00000000000000000000e-01) (2, 5, 5.00000000000000000000e-01) (2, 5, 5.00000000000000000000e-01) (0, 5, 0.00000000000000000000e+00) (8, 5, 5.00000000000000000000e-01) (8, 5, 5.00000000000000000000e-01) (0, 5, 0.00000000000000000000e+00) 
connections (connected_to_neuron, weight)=(0, 1.41884386539459228516e-01) (1, 8.76506865024566650391e-01) (0, 1.19744278490543365479e-01) (1, 8.17656695842742919922e-01) (0, 8.65986764430999755859e-01) (1, -8.47049206495285034180e-02) (0, 7.25188374519348144531e-01) (1, 1.18482792377471923828e+00) (0, 2.39178612828254699707e-01) (1, 8.57339143753051757812e-01) (0, -5.96392512321472167969e-01) (1, -1.35803496837615966797e+00) (0, 4.09403949975967407227e-01) (1, 9.03330385684967041016e-01) (2, 1.64964180439710617065e-02) (3, 8.23191776871681213379e-02) (4, -5.74582457542419433594e-01) (5, -3.00153911113739013672e-01) (6, -9.63394269347190856934e-02) (7, 1.19645583629608154297e+00) (8, -3.58572542667388916016e-01) (9, 2.43226051330566406250e+00) (2, -6.30849525332450866699e-02) (3, -4.75922748446464538574e-02) (4, 9.29257392883300781250e-01) (5, 6.75858408212661743164e-02) (6, 5.12700319290161132812e-01) (7, -3.25912743806838989258e-01) (8, 1.30307495594024658203e-01) (9, 1.85133504867553710938e+00) 
