FANN_FLO_2.1
num_layers=3
learning_rate=0.700000
connection_rate=1.000000
network_type=0
learning_momentum=0.000000
training_algorithm=2
train_error_function=1
train_stop_function=0
cascade_output_change_fraction=0.010000
quickprop_decay=-0.000100
quickprop_mu=1.750000
rprop_increase_factor=1.200000
rprop_decrease_factor=0.500000
rprop_delta_min=0.000000
rprop_delta_max=50.000000
rprop_delta_zero=0.100000
cascade_output_stagnation_epochs=12
cascade_candidate_change_fraction=0.010000
cascade_candidate_stagnation_epochs=12
cascade_max_out_epochs=150
cascade_min_out_epochs=50
cascade_max_cand_epochs=150
cascade_min_cand_epochs=50
cascade_num_candidate_groups=2
bit_fail_limit=3.49999994039535522461e-01
cascade_candidate_limit=1.00000000000000000000e+03
cascade_weight_multiplier=4.00000005960464477539e-01
cascade_activation_functions_count=10
cascade_activation_functions=3 5 7 8 10 11 14 15 16 17 
cascade_activation_steepnesses_count=4
cascade_activation_steepnesses=2.50000000000000000000e-01 5.00000000000000000000e-01 7.50000000000000000000e-01 1.00000000000000000000e+00 
layer_sizes=2 8 3 
scale_included=0
neurons (num_inputs, activation_function, activation_steepness)=(0, 0, 0.00000000000000000000e+00) (0, 0, 0.00000000000000000000e+00) (2, 5, 5.00000000000000000000e-01) (2, 5, 5.00000000000000000000e-01) (2, 5, 5.00000000000000000000e-01) (2, 5, 5.00000000000000000000e-01) (2, 5, 5.00000000000000000000e-01) (2, 5, 5.00000000000000000000e-01) (2, 5, 5.00000000000000000000e-01) (0, 5, 0.00000000000000000000e+00) (8, 5, 5.00000000000000000000e-01) (8, 5, 5.00000000000000000000e-01) (0, 5, 0.00000000000000000000e+00) 
connections (connected_to_neuron, weight)=(0, 1.87356695532798767090e-01) (1, 3.51830768585205078125e+00) (0, 5.61606278643012046814e-03) (1, 3.46777379512786865234e-01) (0, 1.95839405059814453125e-01) (1, 2.12725186347961425781e+00) (0, -2.03974675387144088745e-02) (1, 5.16541671752929687500e+00) (0, -7.50791907310485839844e-01) (1, 2.85955488681793212891e-01) (0, -1.24765798449516296387e-01) (1, 3.22665989398956298828e-01) (0, 1.67823278903961181641e+00) (1, 1.03599357604980468750e+00) (2, -4.28333990275859832764e-02) (3, 3.26007083058357238770e-02) (4, -9.66694533824920654297e-01) (5, -1.76916271448135375977e-01) (6, 1.24890339374542236328e+00) (7, 1.46367758512496948242e-01) (8, -5.81730365753173828125e-01) (9, 2.77365207672119140625e+00) (2, 3.25876772403717041016e-01) (3, 4.99286130070686340332e-02) (4, 1.20463363826274871826e-01) (5, 1.07008993625640869141e-01) (6, -3.96155208349227905273e-01) (7, 9.81941893696784973145e-02) (8, 1.10244238376617431641e+00) (9, 1.78183078765869140625e+00) 
